Language model created by QuickLM on Sun Oct 29 11:05:03 EDT 2017
Copyright (c) 1996-2010 Carnegie Mellon University and Alexander I. Rudnicky

The model is in standard ARPA format, designed by Doug Paul while he was at MITRE.

The code that was used to produce this language model is available in Open Source.
Please visit http://www.speech.cs.cmu.edu/tools/ for more information

The (fixed) discount mass is 0.5. The backoffs are computed using the ratio method.
This model based on a corpus of 10 sentences and 15 words

\data\
ngram 1=15
ngram 2=23
ngram 3=26

\1-grams:
-1.0253 </s> -0.3010
-1.0253 <s> -0.2580
-2.0253 BACK -0.2886
-1.7243 BROWSER -0.2580
-1.5482 CLOSE -0.2714
-1.7243 FILE -0.2928
-2.0253 GMAIL -0.2580
-2.0253 GOOGLE -0.2580
-1.7243 MANAGER -0.2580
-2.0253 NEW -0.2886
-1.3263 OPEN -0.2714
-1.0253 REK -0.2580
-2.0253 SWITCH -0.2969
-1.5482 TAB -0.2580
-2.0253 YOUTUBE -0.2580

\2-grams:
-0.3010 <s> REK 0.0000
-0.3010 BACK TAB 0.0000
-0.3010 BROWSER </s> -0.3010
-0.7782 CLOSE BROWSER 0.0000
-0.7782 CLOSE FILE 0.0000
-0.7782 CLOSE TAB 0.0000
-0.3010 FILE MANAGER 0.0000
-0.3010 GMAIL </s> -0.3010
-0.3010 GOOGLE </s> -0.3010
-0.3010 MANAGER </s> -0.3010
-0.3010 NEW TAB 0.0000
-1.0000 OPEN BROWSER 0.0000
-1.0000 OPEN FILE 0.0000
-1.0000 OPEN GMAIL 0.0000
-1.0000 OPEN GOOGLE 0.0000
-1.0000 OPEN YOUTUBE 0.0000
-0.8239 REK CLOSE 0.0000
-1.3010 REK NEW 0.0000
-0.6021 REK OPEN 0.0000
-1.3010 REK SWITCH 0.0000
-0.3010 SWITCH BACK 0.0000
-0.3010 TAB </s> -0.3010
-0.3010 YOUTUBE </s> -0.3010

\3-grams:
-0.8239 <s> REK CLOSE
-1.3010 <s> REK NEW
-0.6021 <s> REK OPEN
-1.3010 <s> REK SWITCH
-0.3010 BACK TAB </s>
-0.3010 CLOSE BROWSER </s>
-0.3010 CLOSE FILE MANAGER
-0.3010 CLOSE TAB </s>
-0.3010 FILE MANAGER </s>
-0.3010 NEW TAB </s>
-0.3010 OPEN BROWSER </s>
-0.3010 OPEN FILE MANAGER
-0.3010 OPEN GMAIL </s>
-0.3010 OPEN GOOGLE </s>
-0.3010 OPEN YOUTUBE </s>
-0.7782 REK CLOSE BROWSER
-0.7782 REK CLOSE FILE
-0.7782 REK CLOSE TAB
-0.3010 REK NEW TAB
-1.0000 REK OPEN BROWSER
-1.0000 REK OPEN FILE
-1.0000 REK OPEN GMAIL
-1.0000 REK OPEN GOOGLE
-1.0000 REK OPEN YOUTUBE
-0.3010 REK SWITCH BACK
-0.3010 SWITCH BACK TAB

\end\
